{"model":{"class_name": "Model", "config": {"name": "model_2", "layers": [{"name": "input_3", "class_name": "InputLayer", "config": {"batch_input_shape": [null, 512, 512, 4], "dtype": "float32", "sparse": false, "name": "input_3"}, "inbound_nodes": []}, {"name": "conv2d_6", "class_name": "Conv2D", "config": {"name": "conv2d_6", "trainable": true, "filters": 8, "kernel_size": [3, 3], "strides": [2, 2], "padding": "same", "data_format": "channels_last", "dilation_rate": [1, 1], "activation": "linear", "use_bias": true, "kernel_initializer": {"class_name": "VarianceScaling", "config": {"scale": 1.0, "mode": "fan_avg", "distribution": "uniform", "seed": null}}, "bias_initializer": {"class_name": "Zeros", "config": {}}, "kernel_regularizer": null, "bias_regularizer": null, "activity_regularizer": null, "kernel_constraint": null, "bias_constraint": null}, "inbound_nodes": [[["input_3", 0, 0, {}]]]}, {"name": "leaky_re_lu_5", "class_name": "LeakyReLU", "config": {"name": "leaky_re_lu_5", "trainable": true, "alpha": 0.20000000298023224}, "inbound_nodes": [[["conv2d_6", 0, 0, {}]]]}, {"name": "batch_normalization_4", "class_name": "BatchNormalization", "config": {"name": "batch_normalization_4", "trainable": true, "axis": -1, "momentum": 0.8, "epsilon": 0.001, "center": true, "scale": true, "beta_initializer": {"class_name": "Zeros", "config": {}}, "gamma_initializer": {"class_name": "Ones", "config": {}}, "moving_mean_initializer": {"class_name": "Zeros", "config": {}}, "moving_variance_initializer": {"class_name": "Ones", "config": {}}, "beta_regularizer": null, "gamma_regularizer": null, "beta_constraint": null, "gamma_constraint": null}, "inbound_nodes": [[["leaky_re_lu_5", 0, 0, {}]]]}, {"name": "up_sampling2d_1", "class_name": "UpSampling2D", "config": {"name": "up_sampling2d_1", "trainable": true, "size": [2, 2], "data_format": "channels_last", "interpolation": "nearest"}, "inbound_nodes": [[["batch_normalization_4", 0, 0, {}]]]}, {"name": "concatenate_2", "class_name": "Concatenate", "config": {"name": "concatenate_2", "trainable": true, "axis": -1}, "inbound_nodes": [[["up_sampling2d_1", 0, 0, {}], ["input_3", 0, 0, {}]]]}, {"name": "conv2d_7", "class_name": "Conv2D", "config": {"name": "conv2d_7", "trainable": true, "filters": 4, "kernel_size": [3, 3], "strides": [1, 1], "padding": "same", "data_format": "channels_last", "dilation_rate": [1, 1], "activation": "tanh", "use_bias": true, "kernel_initializer": {"class_name": "VarianceScaling", "config": {"scale": 1.0, "mode": "fan_avg", "distribution": "uniform", "seed": null}}, "bias_initializer": {"class_name": "Zeros", "config": {}}, "kernel_regularizer": null, "bias_regularizer": null, "activity_regularizer": null, "kernel_constraint": null, "bias_constraint": null}, "inbound_nodes": [[["concatenate_2", 0, 0, {}]]]}], "input_layers": [["input_3", 0, 0]], "output_layers": [["conv2d_7", 0, 0]]}, "keras_version": "2.2.4", "backend": "tensorflow"},"weights":[{"shape": [3, 3, 4, 8], "kernelweight": [[[[0.08196530491113663, 0.011166008189320564, 0.10234567523002625, -0.04363939166069031, -0.03772135078907013, 0.1366492509841919, -0.01453408319503069, 0.03674474358558655], [-0.010092565789818764, 0.15632764995098114, -0.006298630964010954, -0.0061171650886535645, -0.2982322871685028, -0.1140822321176529, 0.1244717687368393, -0.052438050508499146], [-0.12504930794239044, -0.2607884705066681, 0.009675851091742516, 0.2041943222284317, 0.2101583033800125, -0.012540816329419613, -0.0555095374584198, -0.1488533616065979], [0.18783730268478394, -0.11209359765052795, 0.0008712370181456208, -0.10994193702936172, -0.042251843959093094, -0.14347152411937714, 0.0856957957148552, -0.20389115810394287]], [[0.10099345445632935, -0.09335803240537643, 0.04321344196796417, -0.07529973238706589, -0.17856605350971222, -0.053682804107666016, -0.005153004080057144, -0.14887993037700653], [0.0893184095621109, 0.048684265464544296, -0.01572062261402607, -0.04714340716600418, -0.06619220972061157, -0.2855798304080963, -0.06889215856790543, -0.11278556287288666], [-0.13723036646842957, -0.05761894956231117, -0.07775071263313293, 0.21402402222156525, 0.11947958916425705, 0.02016415260732174, 0.13058102130889893, -0.011785861104726791], [0.035655807703733444, 0.02886173687875271, -0.08672477304935455, 0.15144215524196625, 0.06818803399801254, 0.21333567798137665, 0.28824424743652344, 0.203202486038208]], [[0.16614271700382233, -0.053273528814315796, 0.008554334752261639, 0.18277092278003693, -0.12941645085811615, -0.10668285191059113, -0.08987719565629959, -0.11575289815664291], [-0.06999154388904572, -0.04097272455692291, -0.03650990501046181, -0.06038268655538559, 0.025120042264461517, -0.15485228598117828, 0.039113253355026245, 0.10205965489149094], [-0.11093167960643768, -0.029566112905740738, -0.053085807710886, 0.01174569595605135, 0.10838660597801208, -0.08422014117240906, 0.04004162549972534, -0.2549924850463867], [0.1840668022632599, -0.006395270116627216, -0.0707227811217308, 0.020970793440937996, -0.11995738744735718, -0.021636366844177246, 0.07339215278625488, -0.01620466262102127]]], [[[-0.09475605189800262, -0.2622826099395752, 0.041995368897914886, 0.2261723428964615, -0.1933104246854782, 0.10129869729280472, -0.037355128675699234, -0.05687138810753822], [0.12643364071846008, 0.20601889491081238, 0.08726143836975098, -0.18106098473072052, 0.012271126732230186, 0.021449770778417587, 0.04654296115040779, 0.029474884271621704], [-0.09815124422311783, -0.13075469434261322, -0.1684952974319458, -0.028966275975108147, 0.2750495672225952, -0.14204417169094086, 0.02737501822412014, -0.16250848770141602], [0.2206808626651764, 0.162332683801651, -0.18833088874816895, -0.007854999974370003, 0.06172720715403557, 0.2742898166179657, 0.11724233627319336, 0.2586292028427124]], [[-0.11928451061248779, -0.17111451923847198, -0.06482993066310883, -0.08323784172534943, 0.08641449362039566, -0.023340174928307533, 0.07585474848747253, -0.025012921541929245], [-0.02703692950308323, -0.03716792166233063, 0.11377456039190292, -0.1307355761528015, -0.11698303371667862, -0.045524802058935165, -0.014123032800853252, -0.035867609083652496], [-0.023674380034208298, -0.009315024130046368, -0.13727732002735138, 0.14095516502857208, 0.04533974081277847, -0.24114784598350525, -0.11630646884441376, -0.2158241719007492], [0.11568475514650345, 0.13314151763916016, -0.12113519757986069, -0.17423319816589355, 0.10732632130384445, -0.05293956771492958, -0.0003408629272598773, 0.16202859580516815]], [[0.196402445435524, -0.06590963900089264, -0.09061415493488312, 0.040066126734018326, 0.06827341020107269, -0.15577970445156097, 0.01907978393137455, -0.1482868790626526], [-0.16568216681480408, -0.10628705471754074, 0.15057986974716187, -0.044074930250644684, -0.10008223354816437, -0.1619931161403656, 0.06823888421058655, 0.1628878116607666], [-0.07592596113681793, -0.012930961325764656, -0.19357214868068695, 0.02352714352309704, 0.1395920068025589, 0.11422134935855865, -0.1547234207391739, -0.20963913202285767], [-0.07547608017921448, -0.020699908956885338, 0.03813648223876953, -0.11521127074956894, 0.06377213448286057, 0.0579397939145565, 0.017022525891661644, 0.21340739727020264]]], [[[0.05203025043010712, -0.21132031083106995, -0.06769420206546783, 0.0404449924826622, 0.14448854327201843, -0.0026922267861664295, -0.07679177075624466, -0.09272561967372894], [-0.19447751343250275, 0.2214890867471695, 0.3223177492618561, -0.02127741277217865, -0.1783989816904068, 0.03927072137594223, -0.00509192468598485, 0.16794733703136444], [-0.020205361768603325, -0.21017880737781525, -0.24868299067020416, 0.13152959942817688, 0.17978255450725555, -0.05888548865914345, 0.10385046154260635, -0.11859532445669174], [0.1990336924791336, 0.07976570725440979, -0.18008258938789368, 0.048590898513793945, 0.05814124271273613, -0.11740249395370483, 0.008212239481508732, -0.04399823024868965]], [[-0.09719593077898026, 0.031193243339657784, -0.08632518351078033, 0.2354436218738556, 0.06995201110839844, 0.021678166463971138, 0.05274498090147972, -0.052652936428785324], [0.09168922901153564, -0.07756248861551285, 0.15699635446071625, -0.2161359041929245, -0.05963864549994469, -0.10797762125730515, 0.01938815601170063, 0.13431409001350403], [0.02485901489853859, -0.11148449778556824, -0.18124036490917206, -0.003997840452939272, 0.0929277315735817, -0.1111970841884613, -0.09420746564865112, -0.2380376160144806], [0.09764523804187775, 0.037271566689014435, -0.13416807353496552, 0.16446681320667267, -0.0214308500289917, 0.13057884573936462, -0.07714627683162689, -0.06472470611333847]], [[-0.08899926394224167, -0.12758585810661316, 0.015056086704134941, 0.07765547186136246, 0.046049270778894424, -0.05023282393813133, 0.04682415351271629, -0.004770709201693535], [-0.006147595588117838, -0.0007243963191285729, 0.062057748436927795, 0.008342656306922436, -0.010979489423334599, -0.11253583431243896, -0.13447880744934082, 0.003428926458582282], [0.08040408790111542, -0.14570589363574982, -0.19100449979305267, 0.03653537854552269, 0.09638039767742157, -0.14578160643577576, 0.041879136115312576, -0.1945866346359253], [0.17902150750160217, 0.18786188960075378, 0.15290778875350952, 0.05249190703034401, -0.08330415189266205, 0.03261321038007736, 0.11049779504537582, 0.20507405698299408]]]]}, {"shape": [8], "arrayweight": [0.26832741498947144, 0.232646182179451, 0.4487416446208954, 0.32432904839515686, -0.28803253173828125, 0.4882656931877136, -0.4404282867908478, 0.20108845829963684]}, {"shape": [8], "arrayweight": [0.8309784531593323, 0.9140754342079163, 0.7753005623817444, 0.8686648607254028, 0.7117239236831665, 0.6884309649467468, 0.6996524333953857, 0.8664129972457886]}, {"shape": [8], "arrayweight": [-0.12449396401643753, -0.05402060225605965, 0.002686826279386878, 0.09672115743160248, -0.008103848434984684, -0.14801646769046783, -0.1102331280708313, 0.09787093102931976]}, {"shape": [8], "arrayweight": [0.2972222566604614, 0.6837948560714722, 1.340901255607605, 0.03549372777342796, -0.20345456898212433, 0.6313636302947998, -0.10034322738647461, 0.8666655421257019]}, {"shape": [8], "arrayweight": [0.32715240120887756, 0.28310877084732056, 0.2143908590078354, 0.030611131340265274, 0.004958523437380791, 0.21639271080493927, 0.015061493031680584, 0.4612930119037628]}, {"shape": [3, 3, 12, 4], "kernelweight": [[[[-0.15508683025836945, -0.07201476395130157, -0.03608159348368645, 0.01668199896812439], [0.10316156595945358, 0.19274713099002838, 0.04036093130707741, -0.015108988620340824], [0.14775076508522034, 0.020914597436785698, 0.14648790657520294, 0.03176100552082062], [0.23353195190429688, 0.05664508417248726, 0.14624138176441193, -0.029439400881528854], [0.020223315805196762, -0.08402238041162491, 0.003343387506902218, -0.03972509875893593], [-0.020913323387503624, 0.07361698895692825, 0.007448192685842514, 0.07133043557405472], [-0.008937714621424675, 0.035648420453071594, 0.08800069987773895, -0.009577854536473751], [0.07906802743673325, -0.13265962898731232, -0.04133628308773041, -0.07830402255058289], [0.14366783201694489, -0.005728877615183592, -0.027465783059597015, 0.06679852306842804], [0.10176277905702591, 0.21439635753631592, 0.09537812322378159, -0.10096271336078644], [-0.09540855139493942, 0.03384795039892197, 0.17536666989326477, 0.04655713587999344], [0.041835688054561615, -0.10185976326465607, 0.13068804144859314, 0.014985191635787487]], [[0.1423410028219223, -0.08619322627782822, 0.11472130566835403, -0.14848335087299347], [-0.11113809049129486, 0.13903334736824036, 0.045024801045656204, 0.06576643139123917], [-0.10813816636800766, -0.007813587784767151, 0.06448760628700256, -0.18267741799354553], [-0.03188177943229675, 0.19085144996643066, 0.012272301129996777, -0.012487007305026054], [-0.08931254595518112, -0.03346472978591919, 0.013792479410767555, -0.015549315139651299], [0.04446488991379738, -0.1517939418554306, -0.13921712338924408, 0.04677455127239227], [-0.069273941218853, -0.13466911017894745, -0.1599491983652115, 0.007537452038377523], [0.05811936408281326, 0.19838236272335052, 0.1937357783317566, -0.014218021184206009], [0.19657349586486816, 0.08306599408388138, 0.12872321903705597, 0.08511115610599518], [-0.029184894636273384, 0.2499273717403412, -0.026624778285622597, -0.0028907014057040215], [0.05270351842045784, -0.18531392514705658, 0.11456608772277832, -0.0900605171918869], [0.09013941138982773, 0.1443386673927307, 0.0065326993353664875, 0.1352139115333557]], [[0.06372702866792679, 0.01703868806362152, -0.07665763795375824, -0.00806468352675438], [0.12273484468460083, 0.016568919643759727, 0.08742677420377731, 0.05698748305439949], [0.12062430381774902, -0.00813950877636671, -0.05489523708820343, 0.06793133914470673], [0.13122212886810303, 0.04822218045592308, 0.09590929001569748, 0.03143838420510292], [0.04634921997785568, 0.03931973874568939, -0.01873745396733284, 0.04489074647426605], [-0.11051647365093231, -0.13055932521820068, -0.11479871720075607, -0.1079772338271141], [0.042277660220861435, 0.15996116399765015, -0.0134860435500741, 0.054245833307504654], [-0.055376388132572174, -0.05605446174740791, -0.018472330644726753, 0.04376246780157089], [-0.03379601985216141, 0.09736934304237366, 0.06009213253855705, -0.011235290206968784], [0.18290317058563232, 0.18522469699382782, -0.017813358455896378, 0.11908117681741714], [0.04193912073969841, -0.21344104409217834, 0.10704585909843445, -0.09581024944782257], [-0.06165458261966705, -0.10849224776029587, 0.09970446676015854, -0.07730693370103836]]], [[[0.05127807334065437, -0.06488655507564545, 0.0541280135512352, -0.16944526135921478], [-0.19294415414333344, -0.00588590744882822, 0.10375875979661942, 0.12880359590053558], [-0.1357131451368332, -0.01988125406205654, -0.04107934609055519, -0.07006325572729111], [0.00597313791513443, 0.09757639467716217, -0.031666100025177, -0.01740453392267227], [-0.08507594466209412, 0.11385881900787354, 0.061187099665403366, 0.08389616757631302], [0.12531453371047974, 0.059113480150699615, 0.08413922786712646, -0.14998099207878113], [0.08014195412397385, -0.029558297246694565, -0.17649510502815247, 0.1942605823278427], [0.13112615048885345, 0.1296318918466568, -0.0058033582754433155, 0.10513611137866974], [0.04838509485125542, 0.011123238131403923, 0.03783787786960602, -0.08361086994409561], [0.11756092309951782, 0.07915812730789185, 0.03926131874322891, 0.02886776439845562], [-0.09504774957895279, 0.09975374490022659, 0.14959131181240082, 0.06036330386996269], [0.09462762624025345, 0.15107430517673492, 0.11191987246274948, 0.07862106710672379]], [[-0.04110703244805336, 0.07795898616313934, -0.12431415915489197, 0.1148453801870346], [0.06947056204080582, 0.055272359400987625, 0.12186435610055923, -0.10611174255609512], [0.020514734089374542, 0.003380571026355028, -0.04777991399168968, 0.057476937770843506], [0.04983421042561531, 0.14916445314884186, 0.03884996473789215, -0.03693852201104164], [0.016841627657413483, -0.09524749964475632, 0.12937429547309875, -0.043880730867385864], [0.12979187071323395, 0.06054265797138214, -0.1464817225933075, 0.0722014531493187], [-0.1889730840921402, -0.10327447205781937, 0.057722385972738266, 0.2268325686454773], [0.05367348715662956, -0.05488939583301544, 0.05985116586089134, -0.0710056722164154], [0.09073128551244736, 0.19425345957279205, 0.24416309595108032, 0.004454655107110739], [0.1463710069656372, 0.11549755930900574, -0.025687674060463905, 0.08691055327653885], [-0.0039001135155558586, -0.1361856907606125, -0.033451274037361145, -0.1716371476650238], [-0.06708430498838425, 0.19404682517051697, -0.010749692097306252, 0.5990138053894043]], [[-0.12148379534482956, -0.09027047455310822, 0.07004047185182571, -0.10513143241405487], [-0.013187259435653687, 0.028820589184761047, 0.06559892743825912, -0.06643801182508469], [-0.005120746325701475, -0.04695518687367439, 0.015618960373103619, 0.09182295948266983], [0.015783125534653664, -0.017920132726430893, -0.047702763229608536, 0.01026203203946352], [0.08213218301534653, 0.10266768932342529, 0.09670889377593994, 0.08830981701612473], [-0.10473312437534332, -0.0010894793085753918, 0.03971777483820915, 0.1074904352426529], [0.01907237060368061, -0.061970215290784836, 0.07497109472751617, 0.0895426943898201], [0.047732122242450714, 0.14241212606430054, -0.08713293820619583, -0.07790730893611908], [0.2152562439441681, 0.11251343041658401, -0.021963052451610565, -0.03309730067849159], [-0.009246261790394783, 0.15719255805015564, 0.13832329213619232, 0.04307889938354492], [-0.09878233075141907, -0.08259495347738266, -0.016008757054805756, -0.04502848535776138], [0.15982367098331451, 0.11254621297121048, -0.15080267190933228, 0.23285463452339172]]], [[[-0.06793826818466187, -0.07009224593639374, -0.11000912636518478, -0.04711532965302467], [0.08002851903438568, 0.11021602898836136, -0.08090949058532715, -0.01141966413706541], [0.09643561393022537, 0.08058959990739822, 0.0963568314909935, 0.040467631071805954], [0.08994808048009872, -0.010540517047047615, 0.035164911299943924, 0.011743548326194286], [0.07646482437849045, 0.0199737511575222, 0.1032935380935669, -0.05101153254508972], [-0.09140435606241226, -0.13717128336429596, 0.015453479252755642, 0.13333967328071594], [0.11446940898895264, 0.11914066225290298, 0.13228249549865723, 0.05383438244462013], [0.06573949754238129, -0.06233864277601242, -0.030600531026721, -0.1499509960412979], [0.03873824328184128, 0.03616772219538689, 0.04870186001062393, 0.15320661664009094], [0.1432957947254181, 0.10077240318059921, 0.08976077288389206, -0.10137651860713959], [0.02322504110634327, 0.055725205689668655, -0.026234932243824005, -0.1094900593161583], [-0.11716695874929428, 0.0056755756959319115, -0.10648993402719498, 0.10655317455530167]], [[-0.12112794071435928, 0.09022754430770874, 0.14007124304771423, -0.10970623791217804], [0.07543035596609116, -0.07083124667406082, 0.06035095825791359, 0.10171502828598022], [-0.07219221442937851, 0.08166427910327911, 0.10164155066013336, 0.023122193291783333], [0.04574240371584892, 0.01746984012424946, 0.058710332959890366, 0.0467994324862957], [0.0669206827878952, 0.12055173516273499, 0.16096408665180206, 0.05651981011033058], [-0.15162190794944763, -0.0021559661254286766, 0.046426866203546524, -0.10435660928487778], [-0.08620109409093857, -0.1515776365995407, -0.03411800414323807, 0.017143968492746353], [0.12790724635124207, 0.07523345202207565, -0.021327314898371696, 0.01443050242960453], [0.09869278222322464, -0.07914719730615616, 0.130967378616333, 0.0065964763052761555], [0.038122233003377914, 0.20395003259181976, 0.008343474939465523, 0.03449350968003273], [0.04882320389151573, -0.08990511298179626, -0.036643218249082565, -0.08434510231018066], [0.06043628230690956, -0.056889016181230545, 0.10931558907032013, 0.21954910457134247]], [[0.09541943669319153, -0.013558118604123592, -0.11898893862962723, -0.024633318185806274], [-0.054687075316905975, -0.10778549313545227, 0.0719691589474678, -0.006428559776395559], [0.12963011860847473, 0.023837272077798843, -0.00838700495660305, -0.04351114481687546], [0.0306530874222517, 0.028120670467615128, 0.03898709639906883, -0.0471341535449028], [0.12512430548667908, 0.043357186019420624, 0.052337516099214554, -0.11145389825105667], [-0.11082709580659866, -0.1056712418794632, -0.2038060873746872, 0.016949206590652466], [-0.14328144490718842, -0.11582041531801224, -0.09698324650526047, 0.023808207362890244], [0.12859582901000977, 0.22476854920387268, 0.08828286081552505, -0.0436093844473362], [0.1167905330657959, -0.020565584301948547, -0.11638186872005463, -0.050859201699495316], [0.034492623060941696, 0.28708600997924805, 0.18572159111499786, -0.08337847888469696], [-0.13690724968910217, -0.0673784464597702, 0.03422803804278374, 0.1257534772157669], [-0.04936430975794792, -0.11268483102321625, -0.0869065597653389, 0.18721537292003632]]]]}, {"shape": [4], "arrayweight": [0.14603248238563538, 0.13944457471370697, -0.010488277301192284, -0.050516653805971146]}]}