{"model":{"class_name": "Model", "config": {"name": "model_2", "layers": [{"name": "input_3", "class_name": "InputLayer", "config": {"batch_input_shape": [null, 512, 512, 4], "dtype": "float32", "sparse": false, "name": "input_3"}, "inbound_nodes": []}, {"name": "conv2d_6", "class_name": "Conv2D", "config": {"name": "conv2d_6", "trainable": true, "filters": 16, "kernel_size": [3, 3], "strides": [2, 2], "padding": "same", "data_format": "channels_last", "dilation_rate": [1, 1], "activation": "linear", "use_bias": true, "kernel_initializer": {"class_name": "VarianceScaling", "config": {"scale": 1.0, "mode": "fan_avg", "distribution": "uniform", "seed": null}}, "bias_initializer": {"class_name": "Zeros", "config": {}}, "kernel_regularizer": null, "bias_regularizer": null, "activity_regularizer": null, "kernel_constraint": null, "bias_constraint": null}, "inbound_nodes": [[["input_3", 0, 0, {}]]]}, {"name": "leaky_re_lu_5", "class_name": "LeakyReLU", "config": {"name": "leaky_re_lu_5", "trainable": true, "alpha": 0.20000000298023224}, "inbound_nodes": [[["conv2d_6", 0, 0, {}]]]}, {"name": "batch_normalization_4", "class_name": "BatchNormalization", "config": {"name": "batch_normalization_4", "trainable": true, "axis": -1, "momentum": 0.8, "epsilon": 0.001, "center": true, "scale": true, "beta_initializer": {"class_name": "Zeros", "config": {}}, "gamma_initializer": {"class_name": "Ones", "config": {}}, "moving_mean_initializer": {"class_name": "Zeros", "config": {}}, "moving_variance_initializer": {"class_name": "Ones", "config": {}}, "beta_regularizer": null, "gamma_regularizer": null, "beta_constraint": null, "gamma_constraint": null}, "inbound_nodes": [[["leaky_re_lu_5", 0, 0, {}]]]}, {"name": "up_sampling2d_3", "class_name": "UpSampling2D", "config": {"name": "up_sampling2d_3", "trainable": true, "size": [2, 2], "data_format": "channels_last", "interpolation": "nearest"}, "inbound_nodes": [[["batch_normalization_4", 0, 0, {}]]]}, {"name": "concatenate_4", "class_name": "Concatenate", "config": {"name": "concatenate_4", "trainable": true, "axis": -1}, "inbound_nodes": [[["up_sampling2d_3", 0, 0, {}], ["input_3", 0, 0, {}]]]}, {"name": "conv2d_11", "class_name": "Conv2D", "config": {"name": "conv2d_11", "trainable": true, "filters": 4, "kernel_size": [3, 3], "strides": [1, 1], "padding": "same", "data_format": "channels_last", "dilation_rate": [1, 1], "activation": "tanh", "use_bias": true, "kernel_initializer": {"class_name": "VarianceScaling", "config": {"scale": 1.0, "mode": "fan_avg", "distribution": "uniform", "seed": null}}, "bias_initializer": {"class_name": "Zeros", "config": {}}, "kernel_regularizer": null, "bias_regularizer": null, "activity_regularizer": null, "kernel_constraint": null, "bias_constraint": null}, "inbound_nodes": [[["concatenate_4", 0, 0, {}]]]}], "input_layers": [["input_3", 0, 0]], "output_layers": [["conv2d_11", 0, 0]]}, "keras_version": "2.2.4", "backend": "tensorflow"},"weights":[{"shape": [3, 3, 4, 16], "kernelweight": [[[[-0.0286653321236372, -0.17070069909095764, -0.008873097598552704, -0.15120579302310944, -0.002195765031501651, -0.005317393224686384, 0.17828300595283508, 0.10332246869802475, 0.14222460985183716, 0.04918096959590912, 0.07883875072002411, -0.0977824479341507, 0.02481226995587349, 0.12030461430549622, 0.10746797174215317, -0.1322435587644577], [0.017895467579364777, -0.12882301211357117, -0.0018727289279922843, 0.10454291850328445, -0.13270042836666107, -0.12481869757175446, 0.00749169709160924, -0.031458329409360886, -0.14103208482265472, -0.06711897253990173, -0.08970695734024048, -0.11304052174091339, 0.1658443957567215, 0.009472611360251904, -0.10654743015766144, -0.16212165355682373], [-0.15192624926567078, -0.10218960046768188, 0.16290035843849182, 0.0648558959364891, 0.030552709475159645, -0.11365587264299393, 0.039699193090200424, 0.0985800102353096, 0.10628204047679901, -0.011890838854014874, 0.03034309670329094, 0.14980916678905487, -0.10783698409795761, 0.1757269650697708, 0.06972410529851913, 0.06918392330408096], [-0.1557159274816513, -0.05107937380671501, -0.19447579979896545, -0.3678998649120331, -0.06262780725955963, -0.18382889032363892, -0.09925981611013412, -0.01011909730732441, 0.03423389419913292, 0.1415470540523529, 0.09851070493459702, -0.09366912394762039, 0.08103777468204498, 0.03584883734583855, -0.020474163815379143, -0.06659750640392303]], [[-0.10905130207538605, -0.0658135861158371, -0.029787708073854446, 0.07306920737028122, -0.24138662219047546, -0.037489842623472214, 0.012443311512470245, 0.13653691112995148, 0.15463151037693024, 0.0896899476647377, 0.1626816689968109, -0.18758001923561096, -0.06270807981491089, 0.03745090961456299, 0.03511405736207962, -0.2510622441768646], [0.19599641859531403, 0.06308938562870026, -0.03454316407442093, 0.0874439999461174, -0.11055776476860046, -0.04409336671233177, 0.03314783424139023, -0.09156621247529984, -0.07777953147888184, -0.0592450276017189, -0.0006550106918439269, -0.14481189846992493, 0.21522825956344604, 0.14826563000679016, -0.024043211713433266, -0.1936962902545929], [-0.15964309871196747, 0.04098309949040413, 0.2262895554304123, -0.054770197719335556, -0.09487733989953995, -0.021481307223439217, 0.07209864258766174, 0.20703661441802979, 0.032907675951719284, -0.042704157531261444, -0.10437639057636261, -0.06528791040182114, -0.02789200283586979, 0.007083709351718426, 0.031246135011315346, -0.0956730842590332], [0.03789805248379707, -0.16313277184963226, -0.03293241187930107, -0.06519948691129684, -0.1352999210357666, -0.23648817837238312, -0.09753040969371796, -0.02905629761517048, -0.017863022163510323, 0.0874115601181984, 0.16750797629356384, -0.017022863030433655, -0.15771368145942688, 0.031237253919243813, 0.03708832338452339, -0.030293915420770645]], [[-0.06703966856002808, 0.06556107103824615, 0.10808220505714417, 0.05752512812614441, 0.011452456004917622, 0.023830804973840714, -0.02559298276901245, -0.008294589817523956, 0.022999916225671768, 0.12002210319042206, -0.03257972374558449, -0.0998576208949089, -0.1065458133816719, -0.14185731112957, 0.09252380579710007, -0.005961252376437187], [0.04580340161919594, 0.048315875232219696, -0.10928142815828323, -0.19390596449375153, -0.07818056643009186, -0.0002389231522101909, -0.16346395015716553, -0.1419975310564041, -0.018423279747366905, -0.09252963960170746, -0.054860614240169525, -0.15503950417041779, 0.27292656898498535, 0.0627967044711113, -0.10963533818721771, -0.08098498731851578], [-0.12883822619915009, 0.15670591592788696, 0.16620051860809326, -0.051125653088092804, -0.19708895683288574, -0.03881771117448807, 0.01737220771610737, 0.33281028270721436, 0.05810363590717316, -0.06664112210273743, 0.06388590484857559, -0.04118479788303375, 0.07082267850637436, -0.12529797852039337, 0.039161644876003265, -0.01685156859457493], [-0.11169451475143433, 0.11013148725032806, -0.11032866686582565, 0.05619554966688156, 0.014682876877486706, -0.0035685773473232985, -0.10342390835285187, -0.007038666866719723, -0.14411887526512146, 0.07134270668029785, 0.0010845742654055357, 0.08832097798585892, -0.1480848342180252, -0.14320221543312073, -0.06579682976007462, 0.04898301884531975]]], [[[0.07970456033945084, -0.24805256724357605, 0.10952320694923401, -0.021466325968503952, -0.159442737698555, -0.03671315312385559, 0.21024398505687714, 0.07732199877500534, 0.07247678935527802, 0.02014857344329357, 0.045708246529102325, -0.030320625752210617, -0.0674644485116005, 0.1819964200258255, 0.09633812308311462, -0.07905720174312592], [-0.013447282835841179, -0.0087834307923913, -0.04399273917078972, 0.1832791566848755, -0.12848877906799316, 0.14792415499687195, 0.0034222269896417856, -0.0498623326420784, 0.015760358422994614, -0.039049435406923294, -0.019007304683327675, -0.05944351851940155, 0.18224576115608215, 0.04904145374894142, -0.12113185971975327, -0.15576137602329254], [-0.16334177553653717, -0.1494894027709961, -0.09237276017665863, -0.022925829514861107, -0.09813205152750015, -0.014797361567616463, 0.14589442312717438, 0.09935280680656433, -0.06872212141752243, 0.06625568866729736, 0.044002801179885864, -0.16234901547431946, -0.08243193477392197, -0.1413886547088623, 0.04364005848765373, -0.20096902549266815], [-0.1653459072113037, 0.0313149094581604, -0.09531334787607193, -0.12328632920980453, 0.15856418013572693, -0.10421900451183319, -0.18054695427417755, -0.01171928085386753, -0.13504375517368317, 0.16486169397830963, 0.10557980835437775, 0.11264828592538834, -0.09598260372877121, -0.16808800399303436, 0.05826210975646973, -0.05810853838920593]], [[-0.034294724464416504, -0.018361851572990417, 0.04902802035212517, 0.19035346806049347, -0.26357176899909973, 0.12792043387889862, 0.20744012296199799, -0.05117017775774002, 0.030116189271211624, 0.02194516360759735, 0.03561034053564072, -0.08570335805416107, -0.028117038309574127, 0.2034718543291092, 0.05407412722706795, -0.1828649342060089], [0.03426513448357582, 0.08107965439558029, 0.004837181884795427, -0.06590805947780609, -0.0520116426050663, -0.02768189087510109, -0.0161786787211895, 0.019724085927009583, 0.09805078059434891, -0.02084999531507492, -0.051304880529642105, -0.0003107001248281449, 0.16003179550170898, 0.06892218440771103, -0.13186456263065338, -0.025424305349588394], [0.07753189653158188, 0.008424398489296436, -0.027355311438441277, -0.015661895275115967, -0.12340129911899567, 0.005364572629332542, -0.016225988045334816, 0.16480977833271027, 0.21064090728759766, -0.1090669259428978, -0.07208214700222015, -0.15902495384216309, 0.11016487330198288, 0.2292194962501526, 0.1443149894475937, -0.1463075876235962], [0.0034331458155065775, -0.10644879192113876, 0.10377330332994461, -0.29770100116729736, 0.09488870948553085, -0.12874504923820496, 0.05064701288938522, -0.19780857861042023, 0.057926543056964874, 0.0759570300579071, 0.1601451337337494, 0.10809561610221863, -0.02691507339477539, 0.10745878517627716, -0.1368272304534912, 0.11367446929216385]], [[-0.04111640527844429, 0.07993347942829132, 0.0816430151462555, 0.0872296690940857, -0.17329749464988708, 0.07180703431367874, -0.028251847252249718, 0.04902515560388565, 0.06726726144552231, 0.03450799733400345, -0.02164570242166519, -0.1197221577167511, 0.007073991000652313, 0.12150708585977554, 0.05390458181500435, -0.1574382483959198], [0.05844230204820633, 0.2855091989040375, -0.0066146100871264935, -0.019700920209288597, -0.09129995107650757, 0.06161484494805336, -0.03184668719768524, -0.07063110917806625, -0.013561004772782326, -0.04497815668582916, -0.040097471326589584, -0.0596773624420166, 0.29658254981040955, -0.09703295677900314, -0.07989853620529175, -0.02078055404126644], [-0.008760358206927776, 0.08527801930904388, 0.017277546226978302, -0.1744260936975479, -0.04019339382648468, -0.11506150662899017, -0.04055129736661911, 0.21656183898448944, 0.14450663328170776, 0.07867629081010818, 0.06331828981637955, 0.037019841372966766, -0.0540928952395916, 0.03595152497291565, 0.12000904232263565, 0.020311197265982628], [-0.17613953351974487, 0.03535287454724312, -0.06854411959648132, -0.1991332769393921, 0.11247018724679947, -0.15353217720985413, -0.07313992828130722, 0.11299162358045578, 0.14427140355110168, 0.2251461297273636, 0.09112679958343506, -0.031227607280015945, 0.08808156102895737, 0.05016079172492027, 0.07048647105693817, 0.0010108090937137604]]], [[[-0.14333780109882355, -0.16581444442272186, -0.012874000705778599, -0.060381293296813965, -0.17970526218414307, 0.07807604968547821, 0.094443678855896, 0.06385572999715805, 0.08239075541496277, -0.08871030807495117, -0.08678888529539108, -0.034865010529756546, -0.03824567422270775, -0.1459827423095703, 0.07286466658115387, 0.02283133752644062], [0.20512041449546814, 0.004406650085002184, -0.05044834688305855, 0.061949800699949265, -0.008248439989984035, 0.10576700419187546, 0.1306474357843399, -0.15405982732772827, -0.09201114624738693, 0.04625996574759483, 0.09075042605400085, -0.12507998943328857, 0.1762518286705017, -0.1438470482826233, -0.05284408852458, -0.14570468664169312], [-0.10984578728675842, 0.10482173413038254, 0.1688365787267685, -0.06044415384531021, -0.13126255571842194, -0.0840592235326767, 0.09934484213590622, 0.16423960030078888, -0.08722413331270218, 0.04548553749918938, -0.00270092417486012, 0.011168011464178562, -0.05124614015221596, -0.15095175802707672, -0.028256872668862343, 0.06823098659515381], [-0.11557488143444061, 0.06626006960868835, -0.06660677492618561, -0.22953681647777557, -0.12333810329437256, -0.1499280482530594, -0.05098589137196541, 0.01952989399433136, 0.17074114084243774, 0.04897164925932884, 0.008082615211606026, -0.04932484030723572, -0.0490194708108902, 0.15180622041225433, 0.1037825271487236, 0.02307989075779915]], [[-0.08972486853599548, 0.022460205480456352, 0.0172090083360672, 0.027639109641313553, -0.25179487466812134, 0.10663653165102005, 0.1143811047077179, -0.01563984528183937, 0.05477813631296158, 0.01804399862885475, -0.03002876788377762, -0.06076400727033615, 0.05292842164635658, 0.11057190597057343, 0.19676850736141205, 0.08046550303697586], [0.08518750965595245, -0.03939603641629219, -0.0983608067035675, -0.0072144633159041405, -0.045486655086278915, 0.0036376039497554302, -0.15511663258075714, -0.05482325330376625, 0.02801871858537197, 0.06670505553483963, 0.06096617504954338, 0.018396982923150063, 0.1461872160434723, -0.004096039105206728, -0.14095237851142883, -0.0365486778318882], [0.007846824824810028, 0.05206798017024994, 0.10900707542896271, -0.08100012689828873, -0.057519786059856415, -0.09225016832351685, -0.008285795338451862, 0.05654380843043327, 0.04940425977110863, -0.05916084349155426, -0.011356396600604057, 0.04065699502825737, -0.05701247975230217, -0.014183945953845978, -0.023056387901306152, -0.07952799648046494], [-0.05288108438253403, 0.10935390740633011, 0.11681560426950455, -0.10097815841436386, -0.03837188705801964, -0.1026027724146843, -0.0005590805667452514, 0.11312443017959595, -0.07496532797813416, -0.007602266501635313, -0.01563832350075245, 0.08882816880941391, 0.13391536474227905, 0.006265360862016678, 0.09821157157421112, -0.00411643274128437]], [[0.08497126400470734, 0.23862603306770325, 0.11078821122646332, -0.034518804401159286, -0.03418218344449997, 0.06996533274650574, -0.006725937128067017, 0.10168267786502838, 0.24310116469860077, -0.07777766138315201, -0.03966311737895012, -0.1071406900882721, 0.19002322852611542, -0.03219914436340332, 0.025681722909212112, -0.06256890296936035], [0.07215730845928192, 0.3039776086807251, -0.028970323503017426, 0.012546156533062458, -0.19297540187835693, 0.07537123560905457, -0.07875082641839981, -0.20785336196422577, -0.0811200812458992, 0.06054072454571724, 0.06514043360948563, -0.048648253083229065, 0.1392129510641098, -0.06776057928800583, -0.030059246346354485, -0.05539694428443909], [-0.08183728158473969, 0.1950140744447708, 0.12458623200654984, 0.012300512753427029, -0.15831300616264343, -0.10657741129398346, 0.07429381459951401, 0.21796666085720062, 0.03450262174010277, -0.01950661651790142, -0.06061559543013573, -0.016329145058989525, 0.008241512812674046, -0.06461510062217712, 0.04665225371718407, -0.08745788782835007], [0.0128807183355093, -0.05674067884683609, 0.014104296453297138, -0.2711670994758606, -0.10324249416589737, -0.12765106558799744, -0.07687141746282578, -0.0625825896859169, -0.1161239966750145, -0.05032801628112793, -0.07862181961536407, -0.029843924567103386, 0.025043753907084465, -0.04282531887292862, -0.11957739293575287, -0.09326376020908356]]]]}, {"shape": [16], "arrayweight": [0.227992445230484, -0.003061388386413455, 0.05693434923887253, 0.141854390501976, -0.059041474014520645, 0.1540609449148178, 0.10724423825740814, -0.042317941784858704, 0.14039093255996704, 0.408961683511734, -0.39676758646965027, 0.2755911350250244, -0.12204020470380783, 0.1275707185268402, 0.35120025277137756, 0.1487303078174591]}, {"shape": [16], "arrayweight": [0.8354085683822632, 0.8660587072372437, 0.9170953035354614, 0.8091273903846741, 0.8827041387557983, 0.925754964351654, 0.9140779972076416, 0.7552541494369507, 0.8509235382080078, 0.949062168598175, 0.9138789772987366, 0.7767201066017151, 0.8005368709564209, 0.7418621778488159, 0.8686309456825256, 0.8939651846885681]}, {"shape": [16], "arrayweight": [0.06358183175325394, -0.11190740019083023, 0.11672724038362503, 0.0651988834142685, 0.06479375809431076, -0.04046892747282982, -0.08157730102539062, -0.03344177082180977, 0.08220919221639633, -0.0060037593357264996, -0.0342218242585659, 0.22948825359344482, 0.04533831775188446, -0.052664320915937424, 0.09710755199193954, -0.08349105715751648]}, {"shape": [16], "arrayweight": [0.915420651435852, 0.046744875609874725, -0.008532999083399773, 0.9949421882629395, 0.5548616051673889, 0.8949553370475769, 0.1943153589963913, -0.16369926929473877, 0.06853184103965759, 0.2599092125892639, -0.09862955659627914, 0.3689504563808441, 0.32315900921821594, 0.15573017299175262, 0.08589726686477661, 0.4536381959915161]}, {"shape": [16], "arrayweight": [0.19710366427898407, 0.03975314274430275, 0.03728587552905083, 0.5412957668304443, 0.4733552932739258, 0.3528233468532562, 0.12080352008342743, 0.02136901207268238, 0.05613652244210243, 0.17279024422168732, 0.009476891718804836, 0.17126384377479553, 0.17811068892478943, 0.034256625920534134, 0.030450789257884026, 0.27634191513061523]}, {"shape": [3, 3, 20, 4], "kernelweight": [[[[0.05041206255555153, 0.1283460259437561, -0.09654258191585541, -0.0754467099905014], [-0.07014923542737961, -0.07758133858442307, -0.1285254955291748, -0.007230666466057301], [0.1035366952419281, 0.075371153652668, 0.13079486787319183, 0.00039744155947119], [-0.07343961298465729, 0.13627301156520844, 0.14124640822410583, -0.1352740079164505], [0.09484490752220154, 0.1789093166589737, 0.055190641433000565, 0.057708464562892914], [-0.07883728295564651, -0.13903412222862244, -0.08018455654382706, 0.0990210473537445], [0.04005960375070572, -0.0901307612657547, -0.17266491055488586, -0.023723796010017395], [-0.02392207831144333, 0.0656244233250618, -0.030918089672923088, 0.0032845919486135244], [0.04722096398472786, 0.030850747600197792, 0.08150268346071243, 0.037735071033239365], [-0.05709914118051529, -0.03543626517057419, -0.14265228807926178, -0.17841283977031708], [-0.04899650067090988, -0.03983619436621666, 0.10045856982469559, 0.06389331072568893], [0.09893374890089035, -0.07036004960536957, 0.015599672682583332, -0.04714535176753998], [-0.02797129936516285, 0.05293763056397438, -0.011840436607599258, 0.0338687002658844], [-0.03777683898806572, 6.643527740379795e-05, -0.054098282009363174, 0.005910031963139772], [0.018009798601269722, 0.030753113329410553, -0.04789319634437561, -0.008762693963944912], [-0.1127813532948494, -0.02908480539917946, -0.09503071755170822, -0.011730111204087734], [0.10429690033197403, -0.01710570603609085, 0.09968443959951401, -0.0877159908413887], [0.11297542601823807, 0.26536381244659424, -0.08176594972610474, 0.05712925270199776], [-0.06553535908460617, -0.19300159811973572, 0.10669940710067749, -0.01116600725799799], [0.05794824659824371, -0.007840685546398163, 0.07276184111833572, 0.006478354334831238]], [[-0.029877474531531334, -0.12596431374549866, 0.1250949651002884, -0.05867302045226097], [-0.055924080312252045, -0.08043432235717773, -0.038454778492450714, 0.008401036262512207], [0.07055867463350296, -0.004008568357676268, 0.04586045816540718, -0.028020445257425308], [0.09197084605693817, -0.06164741888642311, -0.06397181004285812, -0.1102210059762001], [0.003259917488321662, 0.12493301182985306, 0.08938398957252502, 0.036105506122112274], [0.1114065945148468, -0.10069414228200912, -0.056844521313905716, 0.12130293250083923], [-0.1840582937002182, -0.048669129610061646, 0.04270850121974945, 0.031222743913531303], [-0.015975533053278923, 0.04269677773118019, 0.14046162366867065, -0.0061616175808012486], [-0.013416108675301075, -0.06469547748565674, -0.08839303255081177, -0.07761883735656738], [-0.10202505439519882, -0.038471661508083344, 0.07449809461832047, -0.16359172761440277], [0.07900405675172806, -0.0034431717358529568, -0.08422691375017166, 0.062243878841400146], [0.0406164787709713, -0.07917975634336472, 0.01930401660501957, 0.11998703330755234], [0.0518634133040905, 0.06407082825899124, 0.11155586689710617, 0.028971407562494278], [-0.0381869375705719, -0.01784789189696312, -0.055569421499967575, -0.016672661527991295], [0.02589474990963936, 0.04280287027359009, 0.0065350909717381, 0.0863347128033638], [-0.06128939613699913, -0.08900180459022522, 0.009846413508057594, -0.12247584760189056], [0.2462569624185562, -0.007960488088428974, -0.020119154825806618, -0.0012004404561594129], [-0.02072158455848694, 0.21185876429080963, 0.11169543862342834, 0.024128150194883347], [-0.01805749163031578, -0.1511232852935791, 0.21168871223926544, -0.08329413086175919], [0.12733083963394165, -0.014183832332491875, -0.119541697204113, 0.28720542788505554]], [[-0.04424738883972168, 0.10838776081800461, 0.01867472007870674, 0.02636644057929516], [-0.07773593813180923, -0.03400420770049095, -0.06251250207424164, 0.012398130260407925], [0.1643337905406952, 0.07145971059799194, -0.03988315537571907, -0.07339273393154144], [-0.06653043627738953, -0.03827198967337608, 0.13150733709335327, -0.03250329568982124], [0.07896734029054642, -0.040052808821201324, -0.04643219709396362, 0.057184137403964996], [-0.05511670559644699, 0.0755283385515213, -0.07824362814426422, 0.10702193528413773], [-0.09709519147872925, -0.019014807417988777, -0.15358245372772217, 0.002050211653113365], [0.022635752335190773, -0.032384660094976425, 0.03091115690767765, 0.0595652237534523], [-0.028068866580724716, 0.07522568106651306, 0.13879813253879547, 0.03690236806869507], [0.08048969507217407, 0.08355429768562317, -0.019339459016919136, 0.05378487706184387], [-0.0696994960308075, -0.047873467206954956, 0.05413193255662918, 0.11798360198736191], [-0.17547135055065155, 0.04784760624170303, -0.020427627488970757, -0.13564760982990265], [0.06550081819295883, 0.03943399339914322, 0.060373831540346146, -0.06697281450033188], [0.03910815715789795, -0.045439500361680984, -0.06332442164421082, 0.02201775461435318], [-0.04010266438126564, 0.024876659736037254, 0.017238175496459007, -0.0412665419280529], [0.029895715415477753, -0.06062353029847145, -0.04768594354391098, 0.06969241052865982], [0.099843330681324, 0.028617816045880318, 0.0575888529419899, 0.060362331569194794], [0.06248210743069649, 0.12621907889842987, 0.02524343878030777, 0.007045862264931202], [-0.08590235561132431, -0.09341460466384888, 0.09436687082052231, -0.09077021479606628], [-0.007791872136294842, 0.06533748656511307, 0.01536692027002573, 0.025128357112407684]]], [[[0.10314922779798508, -0.03508686274290085, 0.11954649537801743, 0.044229667633771896], [-0.10030519962310791, -0.1289835274219513, -0.08665749430656433, -0.016587629914283752], [0.042933009564876556, 0.016943976283073425, 0.009217292070388794, 0.07489288598299026], [0.0664205551147461, 0.04272808879613876, 0.10252629220485687, 0.11538379639387131], [0.04395810142159462, 0.07616851478815079, -0.07021848857402802, -0.07518212497234344], [-0.06567211449146271, 0.10259449481964111, -0.10178957134485245, -0.11952554434537888], [-0.024436186999082565, 0.026235543191432953, -0.00720329349860549, 0.0011065918952226639], [-0.09918209910392761, 0.08767888695001602, 0.009128636680543423, 0.01717214845120907], [0.11361009627580643, 0.08926917612552643, -0.012859681621193886, 0.058513931930065155], [0.20323556661605835, -0.10573948919773102, -0.05776496231555939, 0.03380967304110527], [-0.06934855878353119, -0.004244945012032986, -0.07443364709615707, 0.13552555441856384], [0.12224578857421875, -0.04582107067108154, 0.07939622551202774, -0.04925954341888428], [0.09322760999202728, 0.015580042265355587, 0.08304311335086823, 0.03628794476389885], [-0.08740547299385071, -0.10540894418954849, -0.016094963997602463, -0.028910290449857712], [0.029736405238509178, 0.03990470990538597, 0.08923067152500153, -0.12221009284257889], [-0.12453075498342514, 0.0043981545604765415, 0.09148388355970383, 0.08742299675941467], [0.17201566696166992, 0.020285841077566147, -0.01724499650299549, 0.07276149839162827], [-0.006216915789991617, 0.10791533440351486, 0.11496877670288086, -0.047275472432374954], [-0.028327051550149918, -0.013843107037246227, 0.01572977378964424, -0.07472353428602219], [0.039755623787641525, 0.17445264756679535, 0.010786653496325016, 0.0628877729177475]], [[0.13262195885181427, 0.018393205478787422, 0.03940963372588158, -0.03833513706922531], [0.00542831514030695, 0.08477751910686493, 0.01084142830222845, 0.03324060142040253], [-0.05816341191530228, 0.13533732295036316, -0.06647713482379913, 0.044491246342659], [0.057229816913604736, 0.12455487251281738, -0.05806386098265648, -0.11485671252012253], [0.07286710292100906, 0.1278846114873886, 0.10660673677921295, 0.061474233865737915], [-0.07442457973957062, -0.07190477848052979, 0.09235658496618271, 0.14485479891300201], [0.019335167482495308, -0.10252644121646881, -0.019830944016575813, -0.048886071890592575], [0.10768241435289383, -0.044837430119514465, 0.052638281136751175, -0.04425586014986038], [0.04784555733203888, -0.020952198654413223, 0.06826300173997879, -0.09803839772939682], [-0.06657843291759491, -0.010799347423017025, 0.01565631479024887, -0.11779601126909256], [0.017126139253377914, 0.05684235692024231, 0.04633786529302597, 0.13629336655139923], [-0.07698791474103928, 0.03950348123908043, 0.009478017687797546, 0.05279400199651718], [-0.005043233744800091, 0.017003295943140984, -0.017613403499126434, -0.12751157581806183], [-0.08356282114982605, -0.0394817516207695, -0.09094122052192688, 0.08812837302684784], [0.12200319766998291, -0.019914066419005394, -0.026970671489834785, 0.052051983773708344], [0.13689196109771729, -0.026537712663412094, -0.06481905281543732, -0.08243796974420547], [0.30779320001602173, 0.08362961560487747, 0.02111605741083622, -0.1366213858127594], [0.041241854429244995, 0.18831408023834229, 0.10103264451026917, 0.09550487250089645], [-0.07716898620128632, -0.0816323533654213, 0.2813299298286438, 0.009307936765253544], [0.02854425087571144, 0.003555657807737589, 0.10514595359563828, 0.5568109154701233]], [[0.045834533870220184, 0.0044244434684515, 0.08673492819070816, -0.05986960604786873], [0.012382499873638153, -0.08878648281097412, -0.034369856119155884, -0.031173504889011383], [-0.05208943784236908, -0.06994865834712982, 0.09869643300771713, 0.08686981350183487], [0.0222772303968668, -0.10781359672546387, -0.14069679379463196, 0.11284791678190231], [0.032582808285951614, -0.03662188723683357, 0.00457154493778944, 0.040946200489997864], [-0.02815401740372181, -0.060397904366254807, 0.11214424669742584, -0.04289240762591362], [0.004458290059119463, -0.09931915998458862, -0.08635034412145615, -0.02368597686290741], [0.02106584422290325, -0.06949805468320847, 0.028850773349404335, -0.0893954187631607], [-0.0811280682682991, 0.12303316593170166, 0.003229354741051793, 0.007882978767156601], [-0.005339047405868769, -0.003695286810398102, 0.1019100546836853, 0.023789657279849052], [-0.0159246064722538, -0.027402466163039207, -0.05029492825269699, -0.10418936610221863], [0.07107919454574585, -0.011292118579149246, 0.053518857806921005, 0.0653458759188652], [0.06707025319337845, -0.00561761436983943, -0.006619605235755444, 0.11919649690389633], [-0.03509409353137016, -0.07940679043531418, -0.013022073544561863, -0.06007710471749306], [0.12533803284168243, 0.16319653391838074, 0.026999711990356445, 0.049662165343761444], [-0.06209443509578705, -0.002629207680001855, -0.05887305736541748, -0.09522544592618942], [0.16021721065044403, 0.11560718715190887, 0.20392324030399323, -0.06244536489248276], [0.15108074247837067, 0.23439665138721466, -0.007754326332360506, 0.0307772234082222], [-0.0349433571100235, -0.014254888519644737, 0.06537409871816635, 0.054355472326278687], [0.0213466864079237, -0.058598440140485764, 0.09546520560979843, 0.24477249383926392]]], [[[0.04720011726021767, 0.03798944503068924, -0.08761091530323029, -0.06790649145841599], [-0.10296117514371872, -0.04610694944858551, -0.03968353942036629, 0.019280925393104553], [0.06578342616558075, 0.07849745452404022, 0.017397316172719002, -0.09401955455541611], [-0.002148936502635479, -0.07239557802677155, 0.08181898295879364, 0.12548458576202393], [-0.041159167885780334, -0.06423945724964142, -0.030290238559246063, -0.04072263836860657], [0.08448468148708344, -0.03066682256758213, -0.05747867375612259, 0.02738277241587639], [-0.13425499200820923, -0.08941859751939774, 0.05043366178870201, 0.0034253348130732775], [0.04555215686559677, -0.05669146776199341, -0.028486840426921844, -0.03297974541783333], [0.07450298219919205, -0.005370733328163624, -0.00940549373626709, 0.05404010787606239], [-0.0034068452659994364, 0.08963815122842789, 0.09224482625722885, -0.16372957825660706], [-0.011639636009931564, 0.027811763808131218, -0.05443092808127403, 0.06405066698789597], [0.06915592402219772, 0.0915786549448967, 0.07727096974849701, 0.08057012408971786], [0.03980661928653717, 0.06551425158977509, 0.062061626464128494, -0.06857192516326904], [-0.07232560962438583, -0.06450710445642471, -0.07642025500535965, -0.007311386987566948], [0.06410214304924011, 0.07158071547746658, 0.07759793847799301, 0.008246531710028648], [-0.08380523324012756, -0.10212870687246323, -0.0669383704662323, 0.007359296549111605], [0.055847957730293274, 0.04985243082046509, 0.0005544075975194573, -0.0023661619052290916], [0.10761775821447372, 0.1578366756439209, 0.008075039833784103, -0.035066306591033936], [-0.10717017203569412, -0.05264143645763397, 0.0029298875015228987, 0.08790525048971176], [-0.04430385306477547, 0.05407446622848511, 0.041840698570013046, 0.13984651863574982]], [[-0.08595993369817734, 0.09426091611385345, 0.020538637414574623, 0.09137357026338577], [-0.010466618463397026, -0.06685826927423477, -0.02888309396803379, -0.026387237012386322], [-0.03641238063573837, 0.12775219976902008, 0.018630260601639748, -0.021924857050180435], [-0.061234068125486374, -0.09474686533212662, -0.025568939745426178, -0.08301388472318649], [-0.11632738262414932, 0.0010232888162136078, -0.04402684047818184, 0.017257122322916985], [0.04068976268172264, 0.12720559537410736, 0.060876358300447464, -0.0898025706410408], [-0.02120460569858551, 0.031777918338775635, -0.10942166298627853, 0.009187927469611168], [-0.08937735110521317, -0.025030620396137238, 0.08682259172201157, 0.02546641230583191], [0.09748765081167221, 0.043658215552568436, 0.07944058626890182, 0.01223746221512556], [0.08301134407520294, 0.02535237930715084, 0.0795731171965599, -0.06968959420919418], [-0.06008444353938103, -0.07024318724870682, 0.011590907350182533, 0.10491859912872314], [0.1411648839712143, 0.034552235156297684, -0.006041054613888264, -0.09746436029672623], [0.0057329535484313965, -0.03374988213181496, -0.06264522671699524, 0.10789856314659119], [-0.026433898136019707, -0.0018409882904961705, 0.001753465854562819, -0.04376129060983658], [0.005148100666701794, 0.0639379695057869, -0.07049605250358582, 0.025833100080490112], [0.018473021686077118, 0.048047032207250595, 0.04066486656665802, 0.054776933044195175], [0.06574350595474243, 0.13753104209899902, 0.0914539024233818, 0.054837584495544434], [0.1389942318201065, 0.17046687006950378, 0.04241212457418442, -0.03833175078034401], [0.05292276665568352, 0.0748315379023552, 0.01377261895686388, 0.026645952835679054], [-0.08694786578416824, 0.10560433566570282, 0.07070697098970413, 0.1359255611896515]], [[-0.012379343621432781, 0.12515829503536224, 0.09071642905473709, -0.11504068970680237], [-0.042630020529031754, 0.022857317700982094, -0.02761988714337349, 0.025446994230151176], [0.19264554977416992, 0.01960115320980549, -0.04361175745725632, -0.11941073834896088], [-0.13357511162757874, -0.08225131034851074, 0.06518080085515976, -0.11432535201311111], [-0.009843192063272, -0.009436841122806072, -0.11087724566459656, -0.024709975346922874], [0.1893368810415268, 0.11094122380018234, -0.1405802071094513, 0.11956964433193207], [-0.09074889123439789, -0.025813087821006775, 0.07115738093852997, -0.003050653263926506], [-0.0871242880821228, -0.07248925417661667, -0.06325846910476685, 0.09350014477968216], [0.010452332906425, -0.04108746722340584, 0.1007617935538292, 0.007574169430881739], [0.04754297062754631, 0.12994326651096344, -0.030541343614459038, -0.12687309086322784], [-0.019090993329882622, -0.08921363204717636, -0.08689593523740768, 0.08449702709913254], [-0.16302654147148132, 0.04736654460430145, 0.13658159971237183, 0.08235515654087067], [0.09540346264839172, 0.1351955533027649, 0.11335279047489166, -0.07009538263082504], [-0.0012019032146781683, -0.049894411116838455, -0.10263532400131226, 0.03329185023903847], [-0.006807298865169287, -0.019399968907237053, 0.06640325486660004, -0.05384985730051994], [0.08573349565267563, -0.03402925655245781, -0.023184897378087044, -0.048984117805957794], [0.13200464844703674, 0.06079338490962982, 0.011141844093799591, 0.031265899538993835], [0.04080576449632645, 0.260562539100647, 0.04129936546087265, 0.02087772637605667], [-0.01720697246491909, 0.014447965659201145, 0.16310830414295197, -0.05666914954781532], [0.14339818060398102, 0.07749634981155396, -0.09136761724948883, 0.03762849420309067]]]]}, {"shape": [4], "arrayweight": [0.06650728732347488, 0.09768205881118774, 0.010119732469320297, 0.014011440798640251]}]}